10 128
4 -0.012016803 -0.026129384 0.32574403 -0.084614374 -0.02319688 -0.21794486 -0.015579817 0.05311736 -0.0004467061 0.069279574 0.4003235 0.093071245 -0.035057507 -0.054746415 -0.20836993 -0.08234054 -0.07321417 0.07679782 -0.0873688 -0.03494621 0.22173761 0.066259615 0.22494134 -0.10875283 -0.060638916 0.14115077 -0.21353225 0.14558525 -0.027182005 -0.014930591 -0.15791735 0.039909378 -0.07788368 0.100677446 0.0189219 -0.076410525 0.22597656 0.003680035 0.23225895 0.028344767 0.056183483 0.12675706 -0.075614884 -0.14466177 -0.01833377 0.10368485 0.0981808 -0.08321392 -0.09849476 -0.10679189 0.09963038 -0.048790764 -0.13588613 0.0987021 0.2366967 -0.0534547 0.1826805 -0.2240937 -0.06517262 -0.022926863 0.1939627 -0.22881453 0.043957137 0.016346 0.05489127 -0.09476725 0.13058558 0.17520887 0.01666692 -0.0680239 -0.055700105 0.014415629 -0.049937453 -0.11703719 -0.08899336 -0.05997471 0.17781927 0.026280282 -0.053525697 0.019327383 -0.11090603 0.06281774 0.02081603 0.10327563 0.007418733 0.1378048 0.14767526 -0.041147694 0.055456337 0.29869676 -0.09597264 -0.03835923 -0.1749594 -0.088355415 0.14206205 -0.19882463 -0.20010796 -0.26793757 0.074277855 0.106003255 -0.18244421 0.07432757 0.16662139 -0.039083336 -0.016242784 -0.06959627 -0.07212042 -0.10161488 0.055734254 -0.119688034 -0.042238206 -0.076147206 -0.019681612 -0.048697114 0.06576844 0.1678597 -0.034925 0.23731863 0.0111912675 -0.10856692 -0.11821193 -0.015880449 0.023064228 0.004797227 -0.14931981 -0.0997984 -0.21174505 0.02661761
6 -0.016189894 -0.014699304 0.3094362 -0.093512855 -0.0067663863 -0.21383011 -0.023545805 0.047549233 0.025095202 0.07701999 0.38187295 0.10526165 -0.013156955 -0.09480384 -0.25035512 -0.08977712 -0.092964746 0.09689788 -0.07580657 -0.009698048 0.19675793 0.053565245 0.20515215 -0.12390584 -0.06822993 0.1381227 -0.1972246 0.14048485 -0.0010624485 -0.0028087927 -0.14586 0.05564922 -0.11808278 0.123922154 0.026434094 -0.075285 0.24671936 0.024523575 0.27434176 0.042007253 0.092119046 0.14439574 -0.06771219 -0.16620952 -0.0053098397 0.12013828 0.118260905 -0.10645607 -0.1203374 -0.12566298 0.11160416 -0.054464784 -0.13555968 0.10033251 0.21687077 -0.057162292 0.15973166 -0.19049391 -0.054815114 -0.054150086 0.19718151 -0.23714623 0.05979615 0.024882404 0.0657108 -0.10680417 0.12573136 0.16873518 0.032963783 -0.0729152 -0.08220524 -0.0066140126 -0.051511604 -0.0988495 -0.09846261 -0.070700295 0.17615815 0.02566991 -0.04964553 0.03503133 -0.122569345 0.06368761 0.011458506 0.093705066 0.03727818 0.13938355 0.14199343 -0.03560837 0.06676677 0.2898294 -0.10641811 -0.04514122 -0.18015021 -0.08164163 0.11024853 -0.2104147 -0.1628309 -0.25404358 0.08166099 0.10061983 -0.17592843 0.06849965 0.15627523 -0.05182921 -0.039948676 -0.06057329 -0.08733751 -0.115067445 0.058418386 -0.102974564 -0.048718728 -0.065074615 -0.015850564 -0.059628397 0.05730609 0.16121508 -0.024593648 0.18304469 0.011907348 -0.10204864 -0.11098695 -0.005383793 0.011798992 0.0133486865 -0.14884344 -0.099080116 -0.17430922 0.008930242
1 -0.0012860482 0.016882492 0.12143676 -0.05348265 0.003745573 -0.16654634 0.00017385186 0.06028625 0.005543028 0.079038166 0.28460285 0.10026198 -0.039107535 -0.060754977 -0.20765126 -0.04677143 -0.08769714 0.09877523 -0.10334195 0.06524627 0.2354813 0.0562587 0.20148405 -0.13488267 -0.07051779 0.1109687 -0.23775607 0.12702021 0.007447142 -0.009169026 -0.19562973 0.055755444 -0.082056396 0.11403223 0.022250284 -0.06680705 0.28648874 0.037760444 0.2688835 0.07383409 0.085229315 0.14937328 -0.016128745 -0.18814716 -0.044304196 0.15250702 0.080785096 -0.09285568 -0.092197254 -0.10857455 0.097785756 -0.0023142712 -0.1011924 0.09172212 0.25783944 -0.005343028 0.19805107 -0.19068572 -0.021447495 -0.0942526 0.20157988 -0.28178838 0.028749447 0.026424406 0.08073851 -0.10068725 0.2049739 0.20277458 -0.03100647 -0.054687127 -0.07031211 0.01423185 -0.028685696 -0.08109275 -0.08055777 -0.06287768 0.11186823 0.0055626654 -0.04145533 0.035701532 -0.048303332 0.023275236 -0.02475195 0.097297594 0.04573724 0.13336675 0.1506287 -0.01819169 0.077824086 0.27057007 -0.105264746 -0.051402915 -0.17372647 -0.08776138 0.09911598 -0.18404585 -0.18024243 -0.25011238 0.0866077 0.060094412 -0.24880813 0.119358934 0.26154625 -0.07521887 -0.042624764 -0.06997136 -0.040764116 -0.15628079 0.045684382 -0.17061779 -0.06526753 -0.029769976 -0.05281772 -0.12976007 0.12970915 0.16890053 -0.02753845 0.24465561 0.018016791 -0.11624669 -0.13492624 -0.0043525104 0.016968058 -0.007859348 -0.16783236 -0.085083164 -0.1563497 0.01435401
3 -0.012004262 -0.00014023218 0.29489252 -0.10099409 -1.6332797e-05 -0.18463105 -0.0344872 0.04450394 0.02495076 0.06718883 0.31775817 0.098880984 -0.013753089 -0.10651998 -0.25306517 -0.08799097 -0.111367 0.10478412 -0.09489871 0.029478565 0.2142593 0.04831877 0.21324617 -0.13530104 -0.08511808 0.15244293 -0.22916861 0.13900697 0.0022215783 0.0005921171 -0.169597 0.062405318 -0.12539606 0.13223135 0.042590152 -0.07658942 0.26012 0.034109283 0.28095245 0.06970678 0.09392689 0.15143815 -0.048139017 -0.16706537 -0.019083967 0.12419054 0.1117581 -0.10320127 -0.111076675 -0.12468018 0.11531288 -0.040664632 -0.1142929 0.100326024 0.20832385 -0.025849942 0.1619363 -0.17307547 -0.046251204 -0.064884156 0.19456531 -0.25350916 0.05968174 0.030446872 0.07409002 -0.10461846 0.16113351 0.17328759 0.022843705 -0.076408625 -0.09153823 -0.021644225 -0.048554607 -0.0994267 -0.09576016 -0.07108318 0.15831226 0.011725986 -0.04331196 0.03785182 -0.103028245 0.04507407 0.012698542 0.097246796 0.038826868 0.13889809 0.13259849 -0.012427752 0.06746407 0.27511516 -0.10924332 -0.040484186 -0.17180915 -0.07023997 0.092871204 -0.20407641 -0.15771283 -0.23708686 0.09174925 0.06649139 -0.19730824 0.06714345 0.18625753 -0.053104438 -0.047120657 -0.062059447 -0.06281447 -0.13904196 0.05336067 -0.12459813 -0.05155292 -0.05159442 -0.017862678 -0.08526528 0.079318345 0.15386479 -0.035225123 0.17295559 0.01950095 -0.09671448 -0.11552253 -0.007711529 0.016312473 0.011777856 -0.15498781 -0.097314686 -0.15237637 -0.0012094877
9 -0.0073331273 -0.023227328 0.30701464 -0.10472067 -0.01300507 -0.22105461 -0.032238152 0.05146627 -0.000669449 0.07505669 0.40742064 0.104342885 -0.05183801 -0.06601607 -0.22167687 -0.085533366 -0.09316172 0.08887375 -0.10081249 0.0043168184 0.23264362 0.052785203 0.22774693 -0.11163134 -0.075677924 0.15559767 -0.23591708 0.13278267 -0.014240446 -0.016622273 -0.17867853 0.044441413 -0.08516822 0.10983596 0.029832123 -0.06981932 0.24509345 0.021815572 0.2438284 0.046317216 0.06785538 0.13622163 -0.056853678 -0.15003742 -0.023249494 0.10248032 0.09442931 -0.094157636 -0.09284144 -0.11127815 0.108084425 -0.043988086 -0.10961342 0.10038398 0.22785759 -0.022903481 0.18219179 -0.21095523 -0.052277587 -0.04006549 0.19109423 -0.23459484 0.043851852 0.027297916 0.053349778 -0.082278386 0.15791911 0.17190751 0.004206765 -0.0686362 -0.053825088 -0.0034967796 -0.040780548 -0.10498665 -0.08780706 -0.045788758 0.14596108 0.01910226 -0.04366752 0.028213512 -0.09180133 0.042972006 0.018108642 0.0921291 0.006282285 0.11854956 0.13270217 -0.024202038 0.058075376 0.26649207 -0.09415739 -0.03525767 -0.16643707 -0.084641784 0.1251467 -0.18488774 -0.19082114 -0.23787543 0.076647535 0.07577053 -0.19922467 0.08408007 0.18836354 -0.047229886 -0.014502552 -0.06276949 -0.056297537 -0.13178493 0.051417932 -0.14230627 -0.045658924 -0.058015358 -0.020064134 -0.08200035 0.08806207 0.16173218 -0.047404844 0.2351299 0.025042383 -0.09912858 -0.12087292 -0.013458926 0.013030881 0.011607638 -0.15753502 -0.102805175 -0.19598345 0.019908708
7 0.008705955 -0.030898107 0.44509536 -0.14942297 -0.00207338 -0.17091909 -0.046828806 0.023268318 0.008700459 0.050067443 0.33279592 0.06495803 -0.03982003 -0.07313733 -0.23087801 -0.09673319 -0.09041373 0.061294194 -0.08540631 -0.018325727 0.19418918 0.03899247 0.2126012 -0.110726625 -0.076153435 0.15350462 -0.20329484 0.11507003 -0.01784711 -0.014205492 -0.14330414 0.06516936 -0.11042683 0.12512116 0.044178933 -0.08418616 0.25094002 0.045511644 0.2440147 0.057690475 0.09343535 0.119960494 -0.06721706 -0.14260036 -0.012189507 0.09702938 0.13348554 -0.115251556 -0.12803887 -0.12405946 0.0954335 -0.055904787 -0.12639754 0.104791544 0.19722135 -0.044105053 0.16713049 -0.18674915 -0.062034033 -0.044349223 0.19884747 -0.23692986 0.08274846 0.03345999 0.048594717 -0.08754578 0.1325717 0.14383319 0.011759096 -0.09345424 -0.08315522 -0.015703004 -0.04874522 -0.10750114 -0.105059355 -0.057150185 0.18501851 0.015788311 -0.070070125 0.007918128 -0.124635905 0.07838153 0.021571022 0.07322827 0.011562922 0.14763656 0.124506265 -0.011006596 0.046497628 0.3025469 -0.12245145 -0.032645725 -0.1752745 -0.09220055 0.10578377 -0.19796371 -0.17892821 -0.23594712 0.065340504 0.09720484 -0.16418457 0.0664187 0.16722278 -0.043285426 -0.014053218 -0.07397694 -0.090131745 -0.12628603 0.06836959 -0.121927865 -0.075030625 -0.068011135 0.0029713276 -0.091700055 0.06885979 0.18894835 -0.047111113 0.20740713 0.019897955 -0.09382003 -0.0955909 -0.016368644 0.00025154313 0.031215262 -0.14616884 -0.097032234 -0.19984837 0.039749976
0 -0.0105388155 -0.0049684187 0.22955243 -0.08082725 0.009804886 -0.19179863 -0.029182956 0.04947289 0.03237529 0.07291707 0.33518437 0.09569935 -0.024991758 -0.09677061 -0.2559702 -0.07482423 -0.10228491 0.0993443 -0.08766868 0.045749217 0.20823738 0.04548255 0.1942273 -0.13173875 -0.08466955 0.13541594 -0.21306135 0.12581216 0.0023908627 -0.0055982727 -0.16128372 0.05571613 -0.12696825 0.13906385 0.039196875 -0.064425334 0.2897011 0.041286975 0.308758 0.06870874 0.09616357 0.16163193 -0.039842926 -0.1918425 -0.013399866 0.1255008 0.117971115 -0.10115186 -0.11594762 -0.12309138 0.100688905 -0.034978915 -0.10762809 0.09986161 0.21791892 -0.031627297 0.16495065 -0.16467291 -0.038780674 -0.08172842 0.19239147 -0.25872448 0.058199245 0.02529163 0.07976851 -0.09326738 0.15979248 0.17614885 0.008626333 -0.06110338 -0.08206153 -0.01983297 -0.044150993 -0.083597 -0.091579415 -0.07212148 0.1431789 0.011180422 -0.042701226 0.04292561 -0.093608186 0.03839175 -0.0027074893 0.091140516 0.043419402 0.13269481 0.13925335 -0.01829859 0.071729034 0.27229926 -0.1005779 -0.05165277 -0.17968516 -0.081469685 0.09966099 -0.20085762 -0.16651064 -0.23859462 0.07871555 0.07543158 -0.21044606 0.08171258 0.18743424 -0.059975043 -0.042625975 -0.054617472 -0.07295254 -0.14586791 0.05011645 -0.13992158 -0.06878537 -0.048637196 -0.02533341 -0.10617782 0.09450536 0.16396353 -0.029377233 0.20026036 0.018536663 -0.11580065 -0.12688176 0.00022869091 0.007332427 0.013988099 -0.15414013 -0.09266372 -0.1424179 0.01359644
2 8.234674e-05 -0.005123583 0.3082156 -0.1100259 -0.012383631 -0.19660686 -0.028351154 0.05758054 0.0003450378 0.062820025 0.3432729 0.09726712 -0.048853148 -0.0658431 -0.21513698 -0.075805 -0.08954904 0.08677207 -0.09904448 0.024572618 0.23706003 0.04479037 0.22974895 -0.12890491 -0.07363518 0.14786772 -0.23941256 0.13000697 5.114692e-05 -0.0176983 -0.18662885 0.062273372 -0.089885585 0.10968573 0.036020778 -0.06948476 0.2550414 0.039992806 0.23137408 0.056455366 0.075009964 0.13512571 -0.042949595 -0.1504125 -0.022351328 0.12025627 0.09036274 -0.09972669 -0.09798815 -0.106521845 0.094323084 -0.027284795 -0.111894965 0.11075754 0.24344821 -0.017260289 0.18998083 -0.20023039 -0.043701302 -0.06863594 0.19664255 -0.25880766 0.052374184 0.02496269 0.0587595 -0.08296338 0.17866997 0.1790261 -0.012141388 -0.075175226 -0.0703061 -0.005659026 -0.03850161 -0.10433862 -0.0898045 -0.0477689 0.1429613 0.0065422878 -0.050239664 0.017919593 -0.084507756 0.043438647 0.0112347435 0.09032661 0.02188014 0.12315283 0.13432114 -0.0144163305 0.06144952 0.26707253 -0.110005006 -0.0385169 -0.15956774 -0.0816453 0.10386839 -0.17160338 -0.17698464 -0.22680096 0.08425103 0.069181606 -0.21485415 0.0987952 0.21525455 -0.051773857 -0.0141487485 -0.06935867 -0.050995927 -0.14298591 0.042488724 -0.1517984 -0.06088491 -0.04674741 -0.03130135 -0.10410744 0.10556062 0.16588056 -0.029365148 0.22578183 0.024640283 -0.09589007 -0.11283257 -0.014869917 0.014179288 -0.0011877599 -0.15601617 -0.097491495 -0.17760733 0.021117179
5 -0.0066703083 0.026655234 0.073368214 -0.04040161 0.009730982 -0.16278097 -0.01191099 0.066379644 0.021829735 0.07852596 0.28672725 0.09986467 -0.04059899 -0.06578722 -0.21954206 -0.045293987 -0.095571674 0.100120515 -0.11130242 0.08598781 0.24349798 0.047509044 0.21172403 -0.1438626 -0.08969329 0.12831007 -0.25672996 0.12959146 -0.00034085315 -0.0059866053 -0.20521249 0.058713477 -0.098667145 0.12131297 0.03653183 -0.06247077 0.2915726 0.040957414 0.28468844 0.07655398 0.06887271 0.16660732 -0.02300793 -0.20387247 -0.0352911 0.14188686 0.08175385 -0.078856856 -0.095198475 -0.09542902 0.09507666 0.0059100343 -0.08705861 0.089725226 0.24801785 0.005488464 0.20025827 -0.17011574 -0.017483003 -0.09072532 0.17774414 -0.27341485 0.025486032 0.020513441 0.088466786 -0.08342113 0.21151662 0.19863448 -0.031207433 -0.046591517 -0.07793452 0.0054252357 -0.0220902 -0.08785171 -0.0792872 -0.06870372 0.12161001 0.01276104 -0.04025436 0.041771084 -0.050372053 0.011793216 -0.020660738 0.10291018 0.039267328 0.124579236 0.1606754 -0.013104181 0.077641726 0.2730914 -0.10003936 -0.061689872 -0.17510574 -0.09256582 0.09682515 -0.18809175 -0.18416737 -0.24607827 0.09211706 0.043954417 -0.26139683 0.104413524 0.24347974 -0.06332488 -0.034273576 -0.062572956 -0.037523698 -0.16231056 0.036079947 -0.18436636 -0.06858966 -0.032083947 -0.05642002 -0.13622746 0.1344837 0.16667576 -0.036513593 0.25377136 0.025785822 -0.11548669 -0.14523153 -0.00924979 0.02911789 -0.010555488 -0.16116045 -0.078487165 -0.13943826 0.008127821
8 0.0100910645 7.9988546e-05 0.21450658 -0.078358255 0.0024069443 -0.16450839 -0.024099018 0.048592947 0.012612375 0.061347093 0.3072881 0.07515109 -0.05406504 -0.048760727 -0.20142965 -0.05138819 -0.09108145 0.07784818 -0.09867214 0.049106926 0.22128443 0.049869552 0.20236886 -0.11415289 -0.080682136 0.13358426 -0.22079462 0.10998065 -0.011146393 -0.0066757672 -0.18723986 0.054554924 -0.0883432 0.12159623 0.029723026 -0.073953405 0.29330987 0.048910376 0.27205312 0.062188145 0.06710504 0.14868589 -0.028970273 -0.18338738 -0.033783324 0.11798241 0.09494661 -0.0930963 -0.10556985 -0.11047584 0.09267256 -0.02900299 -0.099305 0.10645697 0.23477235 -0.011136042 0.19821587 -0.18818519 -0.044854283 -0.08151698 0.18211488 -0.26478744 0.04428582 0.011698458 0.07026374 -0.07678072 0.18265855 0.1756671 -0.024470542 -0.058682974 -0.06573747 0.0068438365 -0.034998715 -0.08235369 -0.0914652 -0.048358258 0.13093236 0.015492285 -0.058560822 0.022627754 -0.072255395 0.03803914 -0.008374435 0.07546233 0.016911868 0.118876025 0.1394113 -0.013945568 0.058290787 0.2767578 -0.102839395 -0.04759727 -0.17777523 -0.09983177 0.11663689 -0.18382275 -0.19129558 -0.22873758 0.07839855 0.06615183 -0.23835419 0.09867032 0.23254217 -0.06425725 -0.02615468 -0.070079036 -0.05662577 -0.14848551 0.037955295 -0.1734838 -0.07034902 -0.048455227 -0.039247703 -0.12210177 0.12723789 0.18358582 -0.04555302 0.26418266 0.028261237 -0.117141135 -0.13002202 -0.016596239 0.013193904 0.0051050643 -0.1533812 -0.09933824 -0.18070355 0.033476364
